<?xml version="1.0"?>
<opencv_storage>
<cascade>
  <stageType>BOOST</stageType>
  <featureType>HAAR</featureType>
  <height>20</height>
  <width>20</width>
  <stageParams>
    <boostType>GAB</boostType>
    <minHitRate>9.9500000476837158e-01</minHitRate>
    <maxFalseAlarm>5.0000000000000000e-01</maxFalseAlarm>
    <weightTrimRate>9.4999999999999996e-01</weightTrimRate>
    <maxDepth>1</maxDepth>
    <maxWeakCount>100</maxWeakCount></stageParams>
  <featureParams>
    <maxCatCount>0</maxCatCount>
    <featSize>1</featSize>
    <mode>BASIC</mode></featureParams>
  <stageNum>17</stageNum>
  <stages>
    <!-- stage 0 -->
    <_>
      <maxWeakCount>3</maxWeakCount>
      <stageThreshold>-9.2149406671524048e-01</stageThreshold>
      <weakClassifiers>
        <_>
          <internalNodes>
            0 -1 32 -1.1351461708545685e-01</internalNodes>
          <leafValues>
            8.5973399877548218e-01 -8.6892175674438477e-01</leafValues></_>
        <_>
          <internalNodes>
            0 -1 20 8.8507175445556641e-02</internalNodes>
          <leafValues>
            -7.2321027517318726e-01 7.6237684488296509e-01</leafValues></_>
        <_>
          <internalNodes>
            0 -1 89 -9.2185772955417633e-03</internalNodes>
          <leafValues>
            6.7063802480697632e-01 -7.8855890035629272e-01</leafValues></_></weakClassifiers></_>
    <!-- stage 1 -->
    <_>
      <maxWeakCount>5</maxWeakCount>
      <stageThreshold>-1.0263177156448364e+00</stageThreshold>
      <weakClassifiers>
        <_>
          <internalNodes>
            0 -1 1 7.2566643357276917e-02</internalNodes>
          <leafValues>
            -6.6602689027786255e-01 8.3055198192596436e-01</leafValues></_>
        <_>
          <internalNodes>
            0 -1 33 -6.8378672003746033e-02</internalNodes>
          <leafValues>
            8.1565254926681519e-01 -5.5305379629135132e-01</leafValues></_>
        <_>
          <internalNodes>
            0 -1 70 -1.0759299993515015e-01</internalNodes>
          <leafValues>
            7.0764976739883423e-01 -5.7420581579208374e-01</leafValues></_>
        <_>
          <internalNodes>
            0 -1 85 3.0286607216112316e-04</internalNodes>
          <leafValues>
            3.9785912632942200e-01 -9.8315072059631348e-01</leafValues></_>
        <_>
          <internalNodes>
            0 -1 52 1.3881619088351727e-04</internalNodes>
          <leafValues>
            3.6910969018936157e-01 -9.5499229431152344e-01</leafValues></_></weakClassifiers></_>
    <!-- stage 2 -->
    <_>
      <maxWeakCount>2</maxWeakCount>
      <stageThreshold>-2.3317676782608032e-01</stageThreshold>
      <weakClassifiers>
        <_>
          <internalNodes>
            0 -1 52 -1.4161350554786623e-04</internalNodes>
          <leafValues>
            -8.9645779132843018e-01 6.7416936159133911e-01</leafValues></_>
        <_>
          <internalNodes>
            0 -1 9 6.3734687864780426e-02</internalNodes>
          <leafValues>
            -8.0936843156814575e-01 6.6328102350234985e-01</leafValues></_></weakClassifiers></_>
    <!-- stage 3 -->
    <_>
      <maxWeakCount>5</maxWeakCount>
      <stageThreshold>-1.0746865272521973e+00</stageThreshold>
      <weakClassifiers>
        <_>
          <internalNodes>
            0 -1 10 2.5901280343532562e-02</internalNodes>
          <leafValues>
            -7.1770334243774414e-01 6.8027210235595703e-01</leafValues></_>
        <_>
          <internalNodes>
            0 -1 86 -3.4891590476036072e-02</internalNodes>
          <leafValues>
            6.4751744270324707e-01 -6.1257761716842651e-01</leafValues></_>
        <_>
          <internalNodes>
            0 -1 61 -1.4604025636799634e-04</internalNodes>
          <leafValues>
            -9.2677265405654907e-01 4.3474653363227844e-01</leafValues></_>
        <_>
          <internalNodes>
            0 -1 21 1.8425983190536499e-01</internalNodes>
          <leafValues>
            -5.3845852613449097e-01 6.7238384485244751e-01</leafValues></_>
        <_>
          <internalNodes>
            0 -1 47 3.1495932489633560e-04</internalNodes>
          <leafValues>
            3.5930645465850830e-01 -9.9493646621704102e-01</leafValues></_></weakClassifiers></_>
    <!-- stage 4 -->
    <_>
      <maxWeakCount>4</maxWeakCount>
      <stageThreshold>-7.3807680606842041e-01</stageThreshold>
      <weakClassifiers>
        <_>
          <internalNodes>
            0 -1 47 -3.6038091639056802e-04</internalNodes>
          <leafValues>
            -9.0697675943374634e-01 6.4016735553741455e-01</leafValues></_>
        <_>
          <internalNodes>
            0 -1 16 -1.0975585877895355e-01</internalNodes>
          <leafValues>
            5.3133291006088257e-01 -7.6161676645278931e-01</leafValues></_>
        <_>
          <internalNodes>
            0 -1 84 -2.9713880270719528e-02</internalNodes>
          <leafValues>
            5.5729758739471436e-01 -7.0845788717269897e-01</leafValues></_>
        <_>
          <internalNodes>
            0 -1 62 1.3755622785538435e-04</internalNodes>
          <leafValues>
            3.4602490067481995e-01 -9.7339069843292236e-01</leafValues></_></weakClassifiers></_>
    <!-- stage 5 -->
    <_>
      <maxWeakCount>4</maxWeakCount>
      <stageThreshold>-6.9018965959548950e-01</stageThreshold>
      <weakClassifiers>
        <_>
          <internalNodes>
            0 -1 88 -1.0771319270133972e-02</internalNodes>
          <leafValues>
            5.9170985221862793e-01 -8.0895525217056274e-01</leafValues></_>
        <_>
          <internalNodes>
            0 -1 26 2.0035196095705032e-02</internalNodes>
          <leafValues>
            -6.7016679048538208e-01 5.2954661846160889e-01</leafValues></_>
        <_>
          <internalNodes>
            0 -1 46 2.0451738964766264e-04</internalNodes>
          <leafValues>
            3.4673386812210083e-01 -9.9107152223587036e-01</leafValues></_>
        <_>
          <internalNodes>
            0 -1 24 5.5209873244166374e-04</internalNodes>
          <leafValues>
            -6.7381113767623901e-01 4.4219848513603210e-01</leafValues></_></weakClassifiers></_>
    <!-- stage 6 -->
    <_>
      <maxWeakCount>5</maxWeakCount>
      <stageThreshold>-4.4989782571792603e-01</stageThreshold>
      <weakClassifiers>
        <_>
          <internalNodes>
            0 -1 14 4.6502784243784845e-04</internalNodes>
          <leafValues>
            -8.3582091331481934e-01 5.0775194168090820e-01</leafValues></_>
        <_>
          <internalNodes>
            0 -1 39 -1.4822605589870363e-04</internalNodes>
          <leafValues>
            -9.2337602376937866e-01 3.0347678065299988e-01</leafValues></_>
        <_>
          <internalNodes>
            0 -1 39 1.0365813795942813e-04</internalNodes>
          <leafValues>
            3.4929627180099487e-01 -9.4197058677673340e-01</leafValues></_>
        <_>
          <internalNodes>
            0 -1 43 -2.0732466876506805e-01</internalNodes>
          <leafValues>
            4.7875797748565674e-01 -5.6507092714309692e-01</leafValues></_>
        <_>
          <internalNodes>
            0 -1 87 1.4137423131614923e-03</internalNodes>
          <leafValues>
            -8.4277731180191040e-01 2.9822096228599548e-01</leafValues></_></weakClassifiers></_>
    <!-- stage 7 -->
    <_>
      <maxWeakCount>3</maxWeakCount>
      <stageThreshold>-1.7491765320301056e-01</stageThreshold>
      <weakClassifiers>
        <_>
          <internalNodes>
            0 -1 46 -1.8552644178271294e-04</internalNodes>
          <leafValues>
            -9.6721309423446655e-01 5.0757575035095215e-01</leafValues></_>
        <_>
          <internalNodes>
            0 -1 50 1.5942569007165730e-04</internalNodes>
          <leafValues>
            3.2686945796012878e-01 -9.5758169889450073e-01</leafValues></_>
        <_>
          <internalNodes>
            0 -1 79 5.5461317300796509e-02</internalNodes>
          <leafValues>
            -6.4503145217895508e-01 4.6542599797248840e-01</leafValues></_></weakClassifiers></_>
    <!-- stage 8 -->
    <_>
      <maxWeakCount>5</maxWeakCount>
      <stageThreshold>-4.8111706972122192e-01</stageThreshold>
      <weakClassifiers>
        <_>
          <internalNodes>
            0 -1 45 1.4531848137266934e-04</internalNodes>
          <leafValues>
            4.4959127902984619e-01 -9.7989952564239502e-01</leafValues></_>
        <_>
          <internalNodes>
            0 -1 28 -9.7344117239117622e-04</internalNodes>
          <leafValues>
            5.0563901662826538e-01 -5.6371366977691650e-01</leafValues></_>
        <_>
          <internalNodes>
            0 -1 34 -1.8722955137491226e-03</internalNodes>
          <leafValues>
            3.3219188451766968e-01 -7.5930923223495483e-01</leafValues></_>
        <_>
          <internalNodes>
            0 -1 50 -1.6455857257824391e-04</internalNodes>
          <leafValues>
            -9.3165922164916992e-01 2.2776907682418823e-01</leafValues></_>
        <_>
          <internalNodes>
            0 -1 65 6.1539616435766220e-03</internalNodes>
          <leafValues>
            -8.3349078893661499e-01 2.3247270286083221e-01</leafValues></_></weakClassifiers></_>
    <!-- stage 9 -->
    <_>
      <maxWeakCount>5</maxWeakCount>
      <stageThreshold>-4.1002485156059265e-01</stageThreshold>
      <weakClassifiers>
        <_>
          <internalNodes>
            0 -1 19 1.1788811534643173e-03</internalNodes>
          <leafValues>
            -8.2089549303054810e-01 5.0387597084045410e-01</leafValues></_>
        <_>
          <internalNodes>
            0 -1 31 -1.3939619064331055e-01</internalNodes>
          <leafValues>
            3.6882951855659485e-01 -6.8645024299621582e-01</leafValues></_>
        <_>
          <internalNodes>
            0 -1 48 -1.0719761485233903e-04</internalNodes>
          <leafValues>
            -8.4442794322967529e-01 3.1418061256408691e-01</leafValues></_>
        <_>
          <internalNodes>
            0 -1 5 2.4845041334629059e-02</internalNodes>
          <leafValues>
            -5.5945968627929688e-01 4.3688884377479553e-01</leafValues></_>
        <_>
          <internalNodes>
            0 -1 58 8.4846527897752821e-05</internalNodes>
          <leafValues>
            2.8732025623321533e-01 -8.7537324428558350e-01</leafValues></_></weakClassifiers></_>
    <!-- stage 10 -->
    <_>
      <maxWeakCount>6</maxWeakCount>
      <stageThreshold>-4.0535286068916321e-01</stageThreshold>
      <weakClassifiers>
        <_>
          <internalNodes>
            0 -1 92 -4.0279645472764969e-03</internalNodes>
          <leafValues>
            5.3798127174377441e-01 -6.4011800289154053e-01</leafValues></_>
        <_>
          <internalNodes>
            0 -1 49 -7.2444294346496463e-05</internalNodes>
          <leafValues>
            -8.6980152130126953e-01 2.9351294040679932e-01</leafValues></_>
        <_>
          <internalNodes>
            0 -1 11 1.4768259599804878e-02</internalNodes>
          <leafValues>
            -6.6319054365158081e-01 3.0228748917579651e-01</leafValues></_>
        <_>
          <internalNodes>
            0 -1 49 1.0819756425917149e-04</internalNodes>
          <leafValues>
            1.7688339948654175e-01 -9.7514492273330688e-01</leafValues></_>
        <_>
          <internalNodes>
            0 -1 18 -6.9648404605686665e-03</internalNodes>
          <leafValues>
            2.7341383695602417e-01 -6.3553249835968018e-01</leafValues></_>
        <_>
          <internalNodes>
            0 -1 50 -6.6441905801184475e-05</internalNodes>
          <leafValues>
            -8.1133252382278442e-01 2.1754239499568939e-01</leafValues></_></weakClassifiers></_>
    <!-- stage 11 -->
    <_>
      <maxWeakCount>6</maxWeakCount>
      <stageThreshold>-1.0907366275787354e+00</stageThreshold>
      <weakClassifiers>
        <_>
          <internalNodes>
            0 -1 73 -2.3128311149775982e-03</internalNodes>
          <leafValues>
            4.6190029382705688e-01 -8.0590718984603882e-01</leafValues></_>
        <_>
          <internalNodes>
            0 -1 39 -1.1565159366000444e-04</internalNodes>
          <leafValues>
            -8.9559453725814819e-01 2.4467091262340546e-01</leafValues></_>
        <_>
          <internalNodes>
            0 -1 2 -4.3655559420585632e-02</internalNodes>
          <leafValues>
            3.2375150918960571e-01 -5.8765196800231934e-01</leafValues></_>
        <_>
          <internalNodes>
            0 -1 83 -1.0998161451425403e-04</internalNodes>
          <leafValues>
            -6.8637782335281372e-01 2.9626342654228210e-01</leafValues></_>
        <_>
          <internalNodes>
            0 -1 29 2.4846508167684078e-03</internalNodes>
          <leafValues>
            -6.8362146615982056e-01 3.4011092782020569e-01</leafValues></_>
        <_>
          <internalNodes>
            0 -1 90 -2.5574499741196632e-03</internalNodes>
          <leafValues>
            1.8950006365776062e-01 -7.5106006860733032e-01</leafValues></_></weakClassifiers></_>
    <!-- stage 12 -->
    <_>
      <maxWeakCount>7</maxWeakCount>
      <stageThreshold>-3.9195084571838379e-01</stageThreshold>
      <weakClassifiers>
        <_>
          <internalNodes>
            0 -1 75 -1.1458901281002909e-04</internalNodes>
          <leafValues>
            -6.3701069355010986e-01 4.7006869316101074e-01</leafValues></_>
        <_>
          <internalNodes>
            0 -1 0 2.8002023696899414e-02</internalNodes>
          <leafValues>
            -6.8175691366195679e-01 2.9449072480201721e-01</leafValues></_>
        <_>
          <internalNodes>
            0 -1 81 6.7548840888775885e-05</internalNodes>
          <leafValues>
            2.2416524589061737e-01 -9.0751183032989502e-01</leafValues></_>
        <_>
          <internalNodes>
            0 -1 30 -1.1561840772628784e-02</internalNodes>
          <leafValues>
            2.1438837051391602e-01 -6.1835753917694092e-01</leafValues></_>
        <_>
          <internalNodes>
            0 -1 72 -1.0839247988769785e-04</internalNodes>
          <leafValues>
            -7.1311706304550171e-01 2.2879855334758759e-01</leafValues></_>
        <_>
          <internalNodes>
            0 -1 82 -4.4379187747836113e-03</internalNodes>
          <leafValues>
            1.9931204617023468e-01 -8.9520829916000366e-01</leafValues></_>
        <_>
          <internalNodes>
            0 -1 59 1.2289462029002607e-04</internalNodes>
          <leafValues>
            9.8823748528957367e-02 -8.9149743318557739e-01</leafValues></_></weakClassifiers></_>
    <!-- stage 13 -->
    <_>
      <maxWeakCount>8</maxWeakCount>
      <stageThreshold>-7.1758925914764404e-01</stageThreshold>
      <weakClassifiers>
        <_>
          <internalNodes>
            0 -1 67 9.1202047769911587e-05</internalNodes>
          <leafValues>
            -8.8304096460342407e-01 3.9946857094764709e-01</leafValues></_>
        <_>
          <internalNodes>
            0 -1 13 6.9028930738568306e-03</internalNodes>
          <leafValues>
            -5.5302298069000244e-01 3.3069774508476257e-01</leafValues></_>
        <_>
          <internalNodes>
            0 -1 55 -5.0522823585197330e-05</internalNodes>
          <leafValues>
            -7.1559178829193115e-01 2.7615061402320862e-01</leafValues></_>
        <_>
          <internalNodes>
            0 -1 59 -1.2669374700635672e-04</internalNodes>
          <leafValues>
            -6.2771546840667725e-01 2.4990126490592957e-01</leafValues></_>
        <_>
          <internalNodes>
            0 -1 8 -3.4320235252380371e-02</internalNodes>
          <leafValues>
            2.2486126422882080e-01 -6.6825157403945923e-01</leafValues></_>
        <_>
          <internalNodes>
            0 -1 51 -4.4826907105743885e-03</internalNodes>
          <leafValues>
            1.4493949711322784e-01 -8.9534300565719604e-01</leafValues></_>
        <_>
          <internalNodes>
            0 -1 23 -1.3689632760360837e-04</internalNodes>
          <leafValues>
            2.8210112452507019e-01 -5.1205247640609741e-01</leafValues></_>
        <_>
          <internalNodes>
            0 -1 40 1.7122921417467296e-04</internalNodes>
          <leafValues>
            1.6374072432518005e-01 -9.5393896102905273e-01</leafValues></_></weakClassifiers></_>
    <!-- stage 14 -->
    <_>
      <maxWeakCount>11</maxWeakCount>
      <stageThreshold>-8.4464770555496216e-01</stageThreshold>
      <weakClassifiers>
        <_>
          <internalNodes>
            0 -1 7 4.2851333273574710e-04</internalNodes>
          <leafValues>
            -8.2222223281860352e-01 4.0000000596046448e-01</leafValues></_>
        <_>
          <internalNodes>
            0 -1 12 -7.8881718218326569e-03</internalNodes>
          <leafValues>
            6.8138420581817627e-01 -2.2173225879669189e-01</leafValues></_>
        <_>
          <internalNodes>
            0 -1 62 -1.6431274707429111e-04</internalNodes>
          <leafValues>
            -7.4474889039993286e-01 2.0965178310871124e-01</leafValues></_>
        <_>
          <internalNodes>
            0 -1 25 -1.3356375694274902e-01</internalNodes>
          <leafValues>
            -5.0213521718978882e-01 3.2644221186637878e-01</leafValues></_>
        <_>
          <internalNodes>
            0 -1 57 2.3727717052679509e-04</internalNodes>
          <leafValues>
            1.1857590079307556e-01 -1.</leafValues></_>
        <_>
          <internalNodes>
            0 -1 63 9.7328256815671921e-03</internalNodes>
          <leafValues>
            -2.8005722165107727e-01 5.1671367883682251e-01</leafValues></_>
        <_>
          <internalNodes>
            0 -1 64 3.7014350527897477e-04</internalNodes>
          <leafValues>
            -2.6212853193283081e-01 4.7068750858306885e-01</leafValues></_>
        <_>
          <internalNodes>
            0 -1 71 1.4636240666732192e-04</internalNodes>
          <leafValues>
            1.1373515427112579e-01 -8.5863155126571655e-01</leafValues></_>
        <_>
          <internalNodes>
            0 -1 38 -4.7696306137368083e-04</internalNodes>
          <leafValues>
            2.9428029060363770e-01 -4.1103237867355347e-01</leafValues></_>
        <_>
          <internalNodes>
            0 -1 77 -3.1424988061189651e-02</internalNodes>
          <leafValues>
            2.1688523888587952e-01 -5.8376926183700562e-01</leafValues></_>
        <_>
          <internalNodes>
            0 -1 74 -8.6065017967484891e-05</internalNodes>
          <leafValues>
            -9.0161222219467163e-01 1.3896375894546509e-01</leafValues></_></weakClassifiers></_>
    <!-- stage 15 -->
    <_>
      <maxWeakCount>13</maxWeakCount>
      <stageThreshold>-1.0913430452346802e+00</stageThreshold>
      <weakClassifiers>
        <_>
          <internalNodes>
            0 -1 33 -5.5140074342489243e-02</internalNodes>
          <leafValues>
            4.5722714066505432e-01 -5.8303886651992798e-01</leafValues></_>
        <_>
          <internalNodes>
            0 -1 35 3.2127104699611664e-02</internalNodes>
          <leafValues>
            -5.8492881059646606e-01 3.2042276859283447e-01</leafValues></_>
        <_>
          <internalNodes>
            0 -1 22 8.4136230871081352e-03</internalNodes>
          <leafValues>
            -5.5731654167175293e-01 2.9963773488998413e-01</leafValues></_>
        <_>
          <internalNodes>
            0 -1 37 -3.1047377735376358e-02</internalNodes>
          <leafValues>
            3.0516302585601807e-01 -5.0768262147903442e-01</leafValues></_>
        <_>
          <internalNodes>
            0 -1 42 -5.4033589549362659e-05</internalNodes>
          <leafValues>
            -7.8427648544311523e-01 1.9264030456542969e-01</leafValues></_>
        <_>
          <internalNodes>
            0 -1 6 -7.1321125142276287e-03</internalNodes>
          <leafValues>
            5.7601821422576904e-01 -2.9089111089706421e-01</leafValues></_>
        <_>
          <internalNodes>
            0 -1 80 -6.8015986471436918e-05</internalNodes>
          <leafValues>
            -6.9794005155563354e-01 1.8444304168224335e-01</leafValues></_>
        <_>
          <internalNodes>
            0 -1 91 -1.1384271085262299e-02</internalNodes>
          <leafValues>
            2.7540370821952820e-01 -4.3884366750717163e-01</leafValues></_>
        <_>
          <internalNodes>
            0 -1 54 5.5619870545342565e-04</internalNodes>
          <leafValues>
            -6.3786184787750244e-01 1.9080153107643127e-01</leafValues></_>
        <_>
          <internalNodes>
            0 -1 60 3.7811594665981829e-05</internalNodes>
          <leafValues>
            1.8236146867275238e-01 -7.3004114627838135e-01</leafValues></_>
        <_>
          <internalNodes>
            0 -1 27 -1.6656164079904556e-03</internalNodes>
          <leafValues>
            5.0118422508239746e-01 -2.4410164356231689e-01</leafValues></_>
        <_>
          <internalNodes>
            0 -1 93 4.1969679296016693e-04</internalNodes>
          <leafValues>
            -3.0157548189163208e-01 3.7849989533424377e-01</leafValues></_>
        <_>
          <internalNodes>
            0 -1 68 4.8940244596451521e-05</internalNodes>
          <leafValues>
            1.8082655966281891e-01 -6.7041838169097900e-01</leafValues></_></weakClassifiers></_>
    <!-- stage 16 -->
    <_>
      <maxWeakCount>13</maxWeakCount>
      <stageThreshold>-7.5296980142593384e-01</stageThreshold>
      <weakClassifiers>
        <_>
          <internalNodes>
            0 -1 15 2.1542711183428764e-03</internalNodes>
          <leafValues>
            -2.4905660748481750e-01 5.6103897094726562e-01</leafValues></_>
        <_>
          <internalNodes>
            0 -1 36 -2.3978012613952160e-03</internalNodes>
          <leafValues>
            6.5373462438583374e-01 -2.4408686161041260e-01</leafValues></_>
        <_>
          <internalNodes>
            0 -1 78 5.8830300986301154e-05</internalNodes>
          <leafValues>
            3.1957453489303589e-01 -5.4794847965240479e-01</leafValues></_>
        <_>
          <internalNodes>
            0 -1 4 -2.0385894924402237e-02</internalNodes>
          <leafValues>
            2.2425870597362518e-01 -6.7317593097686768e-01</leafValues></_>
        <_>
          <internalNodes>
            0 -1 56 1.5720437659183517e-05</internalNodes>
          <leafValues>
            2.0341040194034576e-01 -6.9074475765228271e-01</leafValues></_>
        <_>
          <internalNodes>
            0 -1 17 -2.3696608841419220e-03</internalNodes>
          <leafValues>
            2.7134889364242554e-01 -5.9338575601577759e-01</leafValues></_>
        <_>
          <internalNodes>
            0 -1 3 5.5169492959976196e-02</internalNodes>
          <leafValues>
            -4.7581002116203308e-01 3.2586491107940674e-01</leafValues></_>
        <_>
          <internalNodes>
            0 -1 76 -8.0830010119825602e-05</internalNodes>
          <leafValues>
            -4.9172374606132507e-01 3.3867925405502319e-01</leafValues></_>
        <_>
          <internalNodes>
            0 -1 69 2.3398341145366430e-03</internalNodes>
          <leafValues>
            -2.3411098122596741e-01 8.1301081180572510e-01</leafValues></_>
        <_>
          <internalNodes>
            0 -1 41 6.5691492636688054e-05</internalNodes>
          <leafValues>
            2.5396820902824402e-01 -5.6726241111755371e-01</leafValues></_>
        <_>
          <internalNodes>
            0 -1 53 -2.2665318101644516e-03</internalNodes>
          <leafValues>
            7.7816861867904663e-01 -2.0103839039802551e-01</leafValues></_>
        <_>
          <internalNodes>
            0 -1 44 1.5720437659183517e-05</internalNodes>
          <leafValues>
            2.7940982580184937e-01 -5.6754243373870850e-01</leafValues></_>
        <_>
          <internalNodes>
            0 -1 66 5.1588378846645355e-04</internalNodes>
          <leafValues>
            -2.8744307160377502e-01 5.9219640493392944e-01</leafValues></_></weakClassifiers></_></stages>
  <features>
    <_>
      <rects>
        <_>
          0 3 12 6 -1.</_>
        <_>
          0 3 6 3 2.</_>
        <_>
          6 6 6 3 2.</_></rects>
      <tilted>0</tilted></_>
    <_>
      <rects>
        <_>
          0 7 10 5 -1.</_>
        <_>
          5 7 5 5 2.</_></rects>
      <tilted>0</tilted></_>
    <_>
      <rects>
        <_>
          0 8 8 10 -1.</_>
        <_>
          0 8 4 5 2.</_>
        <_>
          4 13 4 5 2.</_></rects>
      <tilted>0</tilted></_>
    <_>
      <rects>
        <_>
          0 8 8 10 -1.</_>
        <_>
          4 8 4 10 2.</_></rects>
      <tilted>0</tilted></_>
    <_>
      <rects>
        <_>
          0 12 14 6 -1.</_>
        <_>
          0 12 7 3 2.</_>
        <_>
          7 15 7 3 2.</_></rects>
      <tilted>0</tilted></_>
    <_>
      <rects>
        <_>
          2 2 8 6 -1.</_>
        <_>
          2 2 4 3 2.</_>
        <_>
          6 5 4 3 2.</_></rects>
      <tilted>0</tilted></_>
    <_>
      <rects>
        <_>
          3 9 3 4 -1.</_>
        <_>
          3 11 3 2 2.</_></rects>
      <tilted>0</tilted></_>
    <_>
      <rects>
        <_>
          3 9 12 2 -1.</_>
        <_>
          9 9 6 2 2.</_></rects>
      <tilted>0</tilted></_>
    <_>
      <rects>
        <_>
          3 11 12 4 -1.</_>
        <_>
          3 13 12 2 2.</_></rects>
      <tilted>0</tilted></_>
    <_>
      <rects>
        <_>
          4 4 11 6 -1.</_>
        <_>
          4 7 11 3 2.</_></rects>
      <tilted>0</tilted></_>
    <_>
      <rects>
        <_>
          4 5 4 10 -1.</_>
        <_>
          6 5 2 10 2.</_></rects>
      <tilted>0</tilted></_>
    <_>
      <rects>
        <_>
          4 5 6 4 -1.</_>
        <_>
          4 7 6 2 2.</_></rects>
      <tilted>0</tilted></_>
    <_>
      <rects>
        <_>
          4 6 4 4 -1.</_>
        <_>
          4 6 2 2 2.</_>
        <_>
          6 8 2 2 2.</_></rects>
      <tilted>0</tilted></_>
    <_>
      <rects>
        <_>
          4 7 2 6 -1.</_>
        <_>
          5 7 1 6 2.</_></rects>
      <tilted>0</tilted></_>
    <_>
      <rects>
        <_>
          4 7 4 1 -1.</_>
        <_>
          6 7 2 1 2.</_></rects>
      <tilted>0</tilted></_>
    <_>
      <rects>
        <_>
          4 7 5 2 -1.</_>
        <_>
          4 8 5 1 2.</_></rects>
      <tilted>0</tilted></_>
    <_>
      <rects>
        <_>
          4 9 11 8 -1.</_>
        <_>
          4 13 11 4 2.</_></rects>
      <tilted>0</tilted></_>
    <_>
      <rects>
        <_>
          4 11 13 2 -1.</_>
        <_>
          4 12 13 1 2.</_></rects>
      <tilted>0</tilted></_>
    <_>
      <rects>
        <_>
          4 12 4 6 -1.</_>
        <_>
          4 12 2 3 2.</_>
        <_>
          6 15 2 3 2.</_></rects>
      <tilted>0</tilted></_>
    <_>
      <rects>
        <_>
          4 12 6 1 -1.</_>
        <_>
          7 12 3 1 2.</_></rects>
      <tilted>0</tilted></_>
    <_>
      <rects>
        <_>
          5 2 10 8 -1.</_>
        <_>
          5 6 10 4 2.</_></rects>
      <tilted>0</tilted></_>
    <_>
      <rects>
        <_>
          5 2 10 10 -1.</_>
        <_>
          5 7 10 5 2.</_></rects>
      <tilted>0</tilted></_>
    <_>
      <rects>
        <_>
          5 4 2 11 -1.</_>
        <_>
          6 4 1 11 2.</_></rects>
      <tilted>0</tilted></_>
    <_>
      <rects>
        <_>
          5 7 4 2 -1.</_>
        <_>
          5 7 2 1 2.</_>
        <_>
          7 8 2 1 2.</_></rects>
      <tilted>0</tilted></_>
    <_>
      <rects>
        <_>
          5 10 4 4 -1.</_>
        <_>
          5 10 2 2 2.</_>
        <_>
          7 12 2 2 2.</_></rects>
      <tilted>0</tilted></_>
    <_>
      <rects>
        <_>
          6 1 7 18 -1.</_>
        <_>
          6 7 7 6 2.</_></rects>
      <tilted>0</tilted></_>
    <_>
      <rects>
        <_>
          6 4 6 4 -1.</_>
        <_>
          6 6 6 2 2.</_></rects>
      <tilted>0</tilted></_>
    <_>
      <rects>
        <_>
          6 5 2 4 -1.</_>
        <_>
          6 5 1 2 2.</_>
        <_>
          7 7 1 2 2.</_></rects>
      <tilted>0</tilted></_>
    <_>
      <rects>
        <_>
          6 5 2 6 -1.</_>
        <_>
          6 5 1 3 2.</_>
        <_>
          7 8 1 3 2.</_></rects>
      <tilted>0</tilted></_>
    <_>
      <rects>
        <_>
          6 5 4 2 -1.</_>
        <_>
          6 6 4 1 2.</_></rects>
      <tilted>0</tilted></_>
    <_>
      <rects>
        <_>
          6 5 10 5 -1.</_>
        <_>
          11 5 5 5 2.</_></rects>
      <tilted>0</tilted></_>
    <_>
      <rects>
        <_>
          6 6 14 11 -1.</_>
        <_>
          13 6 7 11 2.</_></rects>
      <tilted>0</tilted></_>
    <_>
      <rects>
        <_>
          6 8 8 12 -1.</_>
        <_>
          6 14 8 6 2.</_></rects>
      <tilted>0</tilted></_>
    <_>
      <rects>
        <_>
          6 11 8 6 -1.</_>
        <_>
          6 14 8 3 2.</_></rects>
      <tilted>0</tilted></_>
    <_>
      <rects>
        <_>
          6 13 4 2 -1.</_>
        <_>
          6 14 4 1 2.</_></rects>
      <tilted>0</tilted></_>
    <_>
      <rects>
        <_>
          7 2 7 6 -1.</_>
        <_>
          7 5 7 3 2.</_></rects>
      <tilted>0</tilted></_>
    <_>
      <rects>
        <_>
          7 4 2 10 -1.</_>
        <_>
          7 4 1 5 2.</_>
        <_>
          8 9 1 5 2.</_></rects>
      <tilted>0</tilted></_>
    <_>
      <rects>
        <_>
          7 5 8 11 -1.</_>
        <_>
          11 5 4 11 2.</_></rects>
      <tilted>0</tilted></_>
    <_>
      <rects>
        <_>
          7 6 4 8 -1.</_>
        <_>
          9 6 2 8 2.</_></rects>
      <tilted>0</tilted></_>
    <_>
      <rects>
        <_>
          7 8 1 4 -1.</_>
        <_>
          7 10 1 2 2.</_></rects>
      <tilted>0</tilted></_>
    <_>
      <rects>
        <_>
          7 8 2 3 -1.</_>
        <_>
          8 8 1 3 2.</_></rects>
      <tilted>0</tilted></_>
    <_>
      <rects>
        <_>
          7 8 2 2 -1.</_>
        <_>
          7 9 2 1 2.</_></rects>
      <tilted>0</tilted></_>
    <_>
      <rects>
        <_>
          7 8 3 2 -1.</_>
        <_>
          7 9 3 1 2.</_></rects>
      <tilted>0</tilted></_>
    <_>
      <rects>
        <_>
          7 8 8 12 -1.</_>
        <_>
          7 14 8 6 2.</_></rects>
      <tilted>0</tilted></_>
    <_>
      <rects>
        <_>
          7 9 1 2 -1.</_>
        <_>
          7 10 1 1 2.</_></rects>
      <tilted>0</tilted></_>
    <_>
      <rects>
        <_>
          7 9 4 1 -1.</_>
        <_>
          9 9 2 1 2.</_></rects>
      <tilted>0</tilted></_>
    <_>
      <rects>
        <_>
          7 9 4 2 -1.</_>
        <_>
          9 9 2 2 2.</_></rects>
      <tilted>0</tilted></_>
    <_>
      <rects>
        <_>
          7 9 6 2 -1.</_>
        <_>
          10 9 3 2 2.</_></rects>
      <tilted>0</tilted></_>
    <_>
      <rects>
        <_>
          7 9 5 2 -1.</_>
        <_>
          7 10 5 1 2.</_></rects>
      <tilted>0</tilted></_>
    <_>
      <rects>
        <_>
          7 10 1 2 -1.</_>
        <_>
          7 11 1 1 2.</_></rects>
      <tilted>0</tilted></_>
    <_>
      <rects>
        <_>
          7 10 6 1 -1.</_>
        <_>
          10 10 3 1 2.</_></rects>
      <tilted>0</tilted></_>
    <_>
      <rects>
        <_>
          7 10 10 2 -1.</_>
        <_>
          12 10 5 2 2.</_></rects>
      <tilted>0</tilted></_>
    <_>
      <rects>
        <_>
          7 11 4 1 -1.</_>
        <_>
          9 11 2 1 2.</_></rects>
      <tilted>0</tilted></_>
    <_>
      <rects>
        <_>
          8 4 2 6 -1.</_>
        <_>
          8 4 1 3 2.</_>
        <_>
          9 7 1 3 2.</_></rects>
      <tilted>0</tilted></_>
    <_>
      <rects>
        <_>
          8 6 4 2 -1.</_>
        <_>
          8 7 4 1 2.</_></rects>
      <tilted>0</tilted></_>
    <_>
      <rects>
        <_>
          8 8 2 2 -1.</_>
        <_>
          9 8 1 2 2.</_></rects>
      <tilted>0</tilted></_>
    <_>
      <rects>
        <_>
          8 9 1 2 -1.</_>
        <_>
          8 10 1 1 2.</_></rects>
      <tilted>0</tilted></_>
    <_>
      <rects>
        <_>
          8 9 4 2 -1.</_>
        <_>
          10 9 2 2 2.</_></rects>
      <tilted>0</tilted></_>
    <_>
      <rects>
        <_>
          8 9 3 2 -1.</_>
        <_>
          8 10 3 1 2.</_></rects>
      <tilted>0</tilted></_>
    <_>
      <rects>
        <_>
          8 9 6 2 -1.</_>
        <_>
          11 9 3 2 2.</_></rects>
      <tilted>0</tilted></_>
    <_>
      <rects>
        <_>
          8 9 3 4 -1.</_>
        <_>
          8 11 3 2 2.</_></rects>
      <tilted>0</tilted></_>
    <_>
      <rects>
        <_>
          8 10 2 2 -1.</_>
        <_>
          8 11 2 1 2.</_></rects>
      <tilted>0</tilted></_>
    <_>
      <rects>
        <_>
          8 10 3 2 -1.</_>
        <_>
          8 11 3 1 2.</_></rects>
      <tilted>0</tilted></_>
    <_>
      <rects>
        <_>
          9 3 4 10 -1.</_>
        <_>
          9 3 2 5 2.</_>
        <_>
          11 8 2 5 2.</_></rects>
      <tilted>0</tilted></_>
    <_>
      <rects>
        <_>
          9 5 2 5 -1.</_>
        <_>
          10 5 1 5 2.</_></rects>
      <tilted>0</tilted></_>
    <_>
      <rects>
        <_>
          9 5 4 4 -1.</_>
        <_>
          9 7 4 2 2.</_></rects>
      <tilted>0</tilted></_>
    <_>
      <rects>
        <_>
          9 6 4 4 -1.</_>
        <_>
          11 6 2 4 2.</_></rects>
      <tilted>0</tilted></_>
    <_>
      <rects>
        <_>
          9 6 3 4 -1.</_>
        <_>
          9 8 3 2 2.</_></rects>
      <tilted>0</tilted></_>
    <_>
      <rects>
        <_>
          9 10 4 1 -1.</_>
        <_>
          11 10 2 1 2.</_></rects>
      <tilted>0</tilted></_>
    <_>
      <rects>
        <_>
          9 12 2 4 -1.</_>
        <_>
          9 12 1 2 2.</_>
        <_>
          10 14 1 2 2.</_></rects>
      <tilted>0</tilted></_>
    <_>
      <rects>
        <_>
          10 6 10 9 -1.</_>
        <_>
          15 6 5 9 2.</_></rects>
      <tilted>0</tilted></_>
    <_>
      <rects>
        <_>
          10 8 4 3 -1.</_>
        <_>
          12 8 2 3 2.</_></rects>
      <tilted>0</tilted></_>
    <_>
      <rects>
        <_>
          10 9 4 1 -1.</_>
        <_>
          12 9 2 1 2.</_></rects>
      <tilted>0</tilted></_>
    <_>
      <rects>
        <_>
          10 9 2 6 -1.</_>
        <_>
          10 12 2 3 2.</_></rects>
      <tilted>0</tilted></_>
    <_>
      <rects>
        <_>
          10 10 2 1 -1.</_>
        <_>
          11 10 1 1 2.</_></rects>
      <tilted>0</tilted></_>
    <_>
      <rects>
        <_>
          10 10 4 1 -1.</_>
        <_>
          12 10 2 1 2.</_></rects>
      <tilted>0</tilted></_>
    <_>
      <rects>
        <_>
          10 10 3 2 -1.</_>
        <_>
          10 11 3 1 2.</_></rects>
      <tilted>0</tilted></_>
    <_>
      <rects>
        <_>
          10 10 8 4 -1.</_>
        <_>
          14 10 4 4 2.</_></rects>
      <tilted>0</tilted></_>
    <_>
      <rects>
        <_>
          11 8 2 2 -1.</_>
        <_>
          11 9 2 1 2.</_></rects>
      <tilted>0</tilted></_>
    <_>
      <rects>
        <_>
          11 8 8 10 -1.</_>
        <_>
          11 8 4 5 2.</_>
        <_>
          15 13 4 5 2.</_></rects>
      <tilted>0</tilted></_>
    <_>
      <rects>
        <_>
          11 9 2 2 -1.</_>
        <_>
          12 9 1 2 2.</_></rects>
      <tilted>0</tilted></_>
    <_>
      <rects>
        <_>
          11 9 2 3 -1.</_>
        <_>
          12 9 1 3 2.</_></rects>
      <tilted>0</tilted></_>
    <_>
      <rects>
        <_>
          11 9 3 6 -1.</_>
        <_>
          11 12 3 3 2.</_></rects>
      <tilted>0</tilted></_>
    <_>
      <rects>
        <_>
          11 10 2 2 -1.</_>
        <_>
          11 11 2 1 2.</_></rects>
      <tilted>0</tilted></_>
    <_>
      <rects>
        <_>
          12 2 6 10 -1.</_>
        <_>
          12 2 3 5 2.</_>
        <_>
          15 7 3 5 2.</_></rects>
      <tilted>0</tilted></_>
    <_>
      <rects>
        <_>
          12 8 2 3 -1.</_>
        <_>
          13 8 1 3 2.</_></rects>
      <tilted>0</tilted></_>
    <_>
      <rects>
        <_>
          12 9 3 8 -1.</_>
        <_>
          12 13 3 4 2.</_></rects>
      <tilted>0</tilted></_>
    <_>
      <rects>
        <_>
          13 5 1 6 -1.</_>
        <_>
          13 8 1 3 2.</_></rects>
      <tilted>0</tilted></_>
    <_>
      <rects>
        <_>
          13 8 4 4 -1.</_>
        <_>
          15 8 2 4 2.</_></rects>
      <tilted>0</tilted></_>
    <_>
      <rects>
        <_>
          13 9 4 3 -1.</_>
        <_>
          15 9 2 3 2.</_></rects>
      <tilted>0</tilted></_>
    <_>
      <rects>
        <_>
          13 10 4 1 -1.</_>
        <_>
          15 10 2 1 2.</_></rects>
      <tilted>0</tilted></_>
    <_>
      <rects>
        <_>
          14 4 4 8 -1.</_>
        <_>
          14 4 2 4 2.</_>
        <_>
          16 8 2 4 2.</_></rects>
      <tilted>0</tilted></_>
    <_>
      <rects>
        <_>
          14 8 1 8 -1.</_>
        <_>
          14 12 1 4 2.</_></rects>
      <tilted>0</tilted></_>
    <_>
      <rects>
        <_>
          14 10 2 2 -1.</_>
        <_>
          14 10 1 1 2.</_>
        <_>
          15 11 1 1 2.</_></rects>
      <tilted>0</tilted></_></features></cascade>
</opencv_storage>
