<?xml version="1.0"?>
<opencv_storage>
<cascade>
  <stageType>BOOST</stageType>
  <featureType>HAAR</featureType>
  <height>20</height>
  <width>20</width>
  <stageParams>
    <boostType>GAB</boostType>
    <minHitRate>9.9500000476837158e-01</minHitRate>
    <maxFalseAlarm>5.0000000000000000e-01</maxFalseAlarm>
    <weightTrimRate>9.4999999999999996e-01</weightTrimRate>
    <maxDepth>1</maxDepth>
    <maxWeakCount>100</maxWeakCount></stageParams>
  <featureParams>
    <maxCatCount>0</maxCatCount>
    <featSize>1</featSize>
    <mode>BASIC</mode></featureParams>
  <stageNum>17</stageNum>
  <stages>
    <!-- stage 0 -->
    <_>
      <maxWeakCount>2</maxWeakCount>
      <stageThreshold>-1.9492176175117493e-01</stageThreshold>
      <weakClassifiers>
        <_>
          <internalNodes>
            0 -1 24 -8.1135034561157227e-02</internalNodes>
          <leafValues>
            8.4486871957778931e-01 -8.8311690092086792e-01</leafValues></_>
        <_>
          <internalNodes>
            0 -1 40 -8.2681559026241302e-02</internalNodes>
          <leafValues>
            6.8819510936737061e-01 -9.1868484020233154e-01</leafValues></_></weakClassifiers></_>
    <!-- stage 1 -->
    <_>
      <maxWeakCount>3</maxWeakCount>
      <stageThreshold>-8.3047592639923096e-01</stageThreshold>
      <weakClassifiers>
        <_>
          <internalNodes>
            0 -1 62 -6.5691940486431122e-02</internalNodes>
          <leafValues>
            8.4729063510894775e-01 -7.9508197307586670e-01</leafValues></_>
        <_>
          <internalNodes>
            0 -1 22 4.2461391538381577e-02</internalNodes>
          <leafValues>
            -7.8382766246795654e-01 7.3326295614242554e-01</leafValues></_>
        <_>
          <internalNodes>
            0 -1 19 -6.9123230874538422e-02</internalNodes>
          <leafValues>
            7.4843370914459229e-01 -6.6481310129165649e-01</leafValues></_></weakClassifiers></_>
    <!-- stage 2 -->
    <_>
      <maxWeakCount>4</maxWeakCount>
      <stageThreshold>-2.1080644428730011e-01</stageThreshold>
      <weakClassifiers>
        <_>
          <internalNodes>
            0 -1 1 3.5092957317829132e-02</internalNodes>
          <leafValues>
            -6.6340506076812744e-01 8.0988591909408569e-01</leafValues></_>
        <_>
          <internalNodes>
            0 -1 21 1.2123435735702515e-01</internalNodes>
          <leafValues>
            -5.0001639127731323e-01 8.0394995212554932e-01</leafValues></_>
        <_>
          <internalNodes>
            0 -1 54 -1.3782955647911876e-04</internalNodes>
          <leafValues>
            -9.7299748659133911e-01 4.4773223996162415e-01</leafValues></_>
        <_>
          <internalNodes>
            0 -1 54 1.2443424202501774e-04</internalNodes>
          <leafValues>
            5.3313362598419189e-01 -9.6840822696685791e-01</leafValues></_></weakClassifiers></_>
    <!-- stage 3 -->
    <_>
      <maxWeakCount>4</maxWeakCount>
      <stageThreshold>-3.3285155892372131e-01</stageThreshold>
      <weakClassifiers>
        <_>
          <internalNodes>
            0 -1 80 -3.6788728088140488e-02</internalNodes>
          <leafValues>
            6.5283840894699097e-01 -7.7604168653488159e-01</leafValues></_>
        <_>
          <internalNodes>
            0 -1 14 3.8534548133611679e-02</internalNodes>
          <leafValues>
            -6.5386533737182617e-01 6.7329305410385132e-01</leafValues></_>
        <_>
          <internalNodes>
            0 -1 15 -2.2719942033290863e-01</internalNodes>
          <leafValues>
            7.4070608615875244e-01 -6.2282323837280273e-01</leafValues></_>
        <_>
          <internalNodes>
            0 -1 71 -2.0675142877735198e-04</internalNodes>
          <leafValues>
            -9.6205782890319824e-01 3.9272025227546692e-01</leafValues></_></weakClassifiers></_>
    <!-- stage 4 -->
    <_>
      <maxWeakCount>5</maxWeakCount>
      <stageThreshold>-4.3530690670013428e-01</stageThreshold>
      <weakClassifiers>
        <_>
          <internalNodes>
            0 -1 81 1.4441320672631264e-04</internalNodes>
          <leafValues>
            5.6941652297973633e-01 -8.6928105354309082e-01</leafValues></_>
        <_>
          <internalNodes>
            0 -1 88 -5.8746444992721081e-03</internalNodes>
          <leafValues>
            4.4794592261314392e-01 -8.0397176742553711e-01</leafValues></_>
        <_>
          <internalNodes>
            0 -1 20 1.7547506093978882e-01</internalNodes>
          <leafValues>
            -6.8076848983764648e-01 5.3057473897933960e-01</leafValues></_>
        <_>
          <internalNodes>
            0 -1 81 -1.0466165258549154e-04</internalNodes>
          <leafValues>
            -9.7437530755996704e-01 2.9044118523597717e-01</leafValues></_>
        <_>
          <internalNodes>
            0 -1 16 -5.6508362293243408e-02</internalNodes>
          <leafValues>
            3.7635549902915955e-01 -8.0008852481842041e-01</leafValues></_></weakClassifiers></_>
    <!-- stage 5 -->
    <_>
      <maxWeakCount>3</maxWeakCount>
      <stageThreshold>-1.8841335549950600e-02</stageThreshold>
      <weakClassifiers>
        <_>
          <internalNodes>
            0 -1 50 -1.8824537983164191e-04</internalNodes>
          <leafValues>
            -9.8333334922790527e-01 5.0566035509109497e-01</leafValues></_>
        <_>
          <internalNodes>
            0 -1 47 2.3517034947872162e-02</internalNodes>
          <leafValues>
            -7.7446913719177246e-01 4.3903994560241699e-01</leafValues></_>
        <_>
          <internalNodes>
            0 -1 50 1.4643723261542618e-04</internalNodes>
          <leafValues>
            3.8288420438766479e-01 -9.6354168653488159e-01</leafValues></_></weakClassifiers></_>
    <!-- stage 6 -->
    <_>
      <maxWeakCount>5</maxWeakCount>
      <stageThreshold>-5.8856266736984253e-01</stageThreshold>
      <weakClassifiers>
        <_>
          <internalNodes>
            0 -1 78 -1.0776377748697996e-03</internalNodes>
          <leafValues>
            5.5776894092559814e-01 -8.7837839126586914e-01</leafValues></_>
        <_>
          <internalNodes>
            0 -1 52 1.5821764827705920e-04</internalNodes>
          <leafValues>
            4.0245875716209412e-01 -9.1512268781661987e-01</leafValues></_>
        <_>
          <internalNodes>
            0 -1 13 9.5900204032659531e-03</internalNodes>
          <leafValues>
            -7.0380729436874390e-01 4.5998641848564148e-01</leafValues></_>
        <_>
          <internalNodes>
            0 -1 58 -3.8479384966194630e-03</internalNodes>
          <leafValues>
            4.0736818313598633e-01 -8.2332849502563477e-01</leafValues></_>
        <_>
          <internalNodes>
            0 -1 36 1.3901053171139210e-04</internalNodes>
          <leafValues>
            2.5069904327392578e-01 -8.4958285093307495e-01</leafValues></_></weakClassifiers></_>
    <!-- stage 7 -->
    <_>
      <maxWeakCount>4</maxWeakCount>
      <stageThreshold>-6.2013107538223267e-01</stageThreshold>
      <weakClassifiers>
        <_>
          <internalNodes>
            0 -1 89 8.0331380013376474e-04</internalNodes>
          <leafValues>
            -8.2662540674209595e-01 5.8034801483154297e-01</leafValues></_>
        <_>
          <internalNodes>
            0 -1 50 1.2803514255210757e-04</internalNodes>
          <leafValues>
            3.0913645029067993e-01 -9.4931530952453613e-01</leafValues></_>
        <_>
          <internalNodes>
            0 -1 10 6.4366788137704134e-04</internalNodes>
          <leafValues>
            -7.3881810903549194e-01 4.7227129340171814e-01</leafValues></_>
        <_>
          <internalNodes>
            0 -1 92 -1.2564498465508223e-03</internalNodes>
          <leafValues>
            6.3617593050003052e-01 -5.2033549547195435e-01</leafValues></_></weakClassifiers></_>
    <!-- stage 8 -->
    <_>
      <maxWeakCount>6</maxWeakCount>
      <stageThreshold>-1.1957151889801025e+00</stageThreshold>
      <weakClassifiers>
        <_>
          <internalNodes>
            0 -1 11 2.1710601868107915e-04</internalNodes>
          <leafValues>
            -8.1886792182922363e-01 4.9951690435409546e-01</leafValues></_>
        <_>
          <internalNodes>
            0 -1 68 7.7203806722536683e-04</internalNodes>
          <leafValues>
            -7.7702987194061279e-01 3.4629854559898376e-01</leafValues></_>
        <_>
          <internalNodes>
            0 -1 49 8.7970911408774555e-05</internalNodes>
          <leafValues>
            3.0557084083557129e-01 -9.5209681987762451e-01</leafValues></_>
        <_>
          <internalNodes>
            0 -1 94 7.5103985145688057e-03</internalNodes>
          <leafValues>
            -5.3497874736785889e-01 5.0358748435974121e-01</leafValues></_>
        <_>
          <internalNodes>
            0 -1 48 1.2166115629952401e-04</internalNodes>
          <leafValues>
            -8.5010868310928345e-01 2.7442708611488342e-01</leafValues></_>
        <_>
          <internalNodes>
            0 -1 83 -9.6700459835119545e-05</internalNodes>
          <leafValues>
            -9.6602851152420044e-01 1.6131436824798584e-01</leafValues></_></weakClassifiers></_>
    <!-- stage 9 -->
    <_>
      <maxWeakCount>7</maxWeakCount>
      <stageThreshold>-8.1157594919204712e-01</stageThreshold>
      <weakClassifiers>
        <_>
          <internalNodes>
            0 -1 90 -2.9312059283256531e-02</internalNodes>
          <leafValues>
            5.5460387468338013e-01 -5.9562844038009644e-01</leafValues></_>
        <_>
          <internalNodes>
            0 -1 17 -3.5327769815921783e-02</internalNodes>
          <leafValues>
            4.4079408049583435e-01 -6.3294786214828491e-01</leafValues></_>
        <_>
          <internalNodes>
            0 -1 12 5.8534324169158936e-02</internalNodes>
          <leafValues>
            -7.3017537593841553e-01 2.9392617940902710e-01</leafValues></_>
        <_>
          <internalNodes>
            0 -1 50 8.8044718722812831e-05</internalNodes>
          <leafValues>
            2.6304674148559570e-01 -8.7382346391677856e-01</leafValues></_>
        <_>
          <internalNodes>
            0 -1 8 3.3349197474308312e-04</internalNodes>
          <leafValues>
            -7.3708933591842651e-01 2.5348007678985596e-01</leafValues></_>
        <_>
          <internalNodes>
            0 -1 67 -1.1981618590652943e-03</internalNodes>
          <leafValues>
            3.9019486308097839e-01 -5.6276547908782959e-01</leafValues></_>
        <_>
          <internalNodes>
            0 -1 35 6.5487969550304115e-05</internalNodes>
          <leafValues>
            2.3244109749794006e-01 -8.2969403266906738e-01</leafValues></_></weakClassifiers></_>
    <!-- stage 10 -->
    <_>
      <maxWeakCount>7</maxWeakCount>
      <stageThreshold>-1.2985156774520874e+00</stageThreshold>
      <weakClassifiers>
        <_>
          <internalNodes>
            0 -1 37 1.3425530865788460e-02</internalNodes>
          <leafValues>
            -6.8524593114852905e-01 5.1155781745910645e-01</leafValues></_>
        <_>
          <internalNodes>
            0 -1 84 2.6534169912338257e-02</internalNodes>
          <leafValues>
            -6.9545316696166992e-01 3.3376002311706543e-01</leafValues></_>
        <_>
          <internalNodes>
            0 -1 65 1.2723458348773420e-04</internalNodes>
          <leafValues>
            2.4991136789321899e-01 -9.2034447193145752e-01</leafValues></_>
        <_>
          <internalNodes>
            0 -1 87 2.7096667326986790e-03</internalNodes>
          <leafValues>
            -4.2253357172012329e-01 6.1433815956115723e-01</leafValues></_>
        <_>
          <internalNodes>
            0 -1 0 -7.4119135737419128e-02</internalNodes>
          <leafValues>
            4.5937079191207886e-01 -5.1541572809219360e-01</leafValues></_>
        <_>
          <internalNodes>
            0 -1 25 7.4506104283500463e-05</internalNodes>
          <leafValues>
            2.9861551523208618e-01 -7.2600996494293213e-01</leafValues></_>
        <_>
          <internalNodes>
            0 -1 55 1.5010039533080999e-05</internalNodes>
          <leafValues>
            1.8886491656303406e-01 -7.2519779205322266e-01</leafValues></_></weakClassifiers></_>
    <!-- stage 11 -->
    <_>
      <maxWeakCount>9</maxWeakCount>
      <stageThreshold>-1.2412785291671753e+00</stageThreshold>
      <weakClassifiers>
        <_>
          <internalNodes>
            0 -1 77 -5.7635502889752388e-03</internalNodes>
          <leafValues>
            4.9128204584121704e-01 -5.5076920986175537e-01</leafValues></_>
        <_>
          <internalNodes>
            0 -1 36 1.4013136387802660e-04</internalNodes>
          <leafValues>
            2.4819193780422211e-01 -9.2218369245529175e-01</leafValues></_>
        <_>
          <internalNodes>
            0 -1 27 -2.7248162776231766e-02</internalNodes>
          <leafValues>
            2.3254337906837463e-01 -7.1860998868942261e-01</leafValues></_>
        <_>
          <internalNodes>
            0 -1 85 -5.1735521992668509e-05</internalNodes>
          <leafValues>
            -5.5898612737655640e-01 3.1370928883552551e-01</leafValues></_>
        <_>
          <internalNodes>
            0 -1 3 2.0172145217657089e-02</internalNodes>
          <leafValues>
            -5.5511957406997681e-01 3.6011788249015808e-01</leafValues></_>
        <_>
          <internalNodes>
            0 -1 91 -1.4702195767313242e-03</internalNodes>
          <leafValues>
            4.1325896978378296e-01 -4.2135447263717651e-01</leafValues></_>
        <_>
          <internalNodes>
            0 -1 31 4.4165609870105982e-04</internalNodes>
          <leafValues>
            -9.1194534301757812e-01 1.7183928191661835e-01</leafValues></_>
        <_>
          <internalNodes>
            0 -1 36 -1.2328245793469250e-04</internalNodes>
          <leafValues>
            -9.3239724636077881e-01 1.5367013216018677e-01</leafValues></_>
        <_>
          <internalNodes>
            0 -1 44 1.0560774535406381e-04</internalNodes>
          <leafValues>
            1.1716406792402267e-01 -8.6871957778930664e-01</leafValues></_></weakClassifiers></_>
    <!-- stage 12 -->
    <_>
      <maxWeakCount>9</maxWeakCount>
      <stageThreshold>-6.9605988264083862e-01</stageThreshold>
      <weakClassifiers>
        <_>
          <internalNodes>
            0 -1 72 -1.0189197491854429e-03</internalNodes>
          <leafValues>
            4.8667323589324951e-01 -6.7247384786605835e-01</leafValues></_>
        <_>
          <internalNodes>
            0 -1 5 3.1092382967472076e-02</internalNodes>
          <leafValues>
            -7.1254295110702515e-01 2.9279777407646179e-01</leafValues></_>
        <_>
          <internalNodes>
            0 -1 55 -1.1311533307889476e-04</internalNodes>
          <leafValues>
            -9.0576255321502686e-01 2.2870187461376190e-01</leafValues></_>
        <_>
          <internalNodes>
            0 -1 76 5.1946076564490795e-04</internalNodes>
          <leafValues>
            -5.1029247045516968e-01 3.5461848974227905e-01</leafValues></_>
        <_>
          <internalNodes>
            0 -1 59 -2.6609050109982491e-03</internalNodes>
          <leafValues>
            2.7112558484077454e-01 -5.3485041856765747e-01</leafValues></_>
        <_>
          <internalNodes>
            0 -1 33 8.7598338723182678e-05</internalNodes>
          <leafValues>
            1.7609915137290955e-01 -7.3653495311737061e-01</leafValues></_>
        <_>
          <internalNodes>
            0 -1 60 -4.7709405422210693e-02</internalNodes>
          <leafValues>
            2.7304914593696594e-01 -5.5395972728729248e-01</leafValues></_>
        <_>
          <internalNodes>
            0 -1 51 1.0901539644692093e-04</internalNodes>
          <leafValues>
            1.3630329072475433e-01 -9.3110567331314087e-01</leafValues></_>
        <_>
          <internalNodes>
            0 -1 39 6.1656499747186899e-04</internalNodes>
          <leafValues>
            -8.8668447732925415e-01 1.1397033184766769e-01</leafValues></_></weakClassifiers></_>
    <!-- stage 13 -->
    <_>
      <maxWeakCount>8</maxWeakCount>
      <stageThreshold>-6.3156598806381226e-01</stageThreshold>
      <weakClassifiers>
        <_>
          <internalNodes>
            0 -1 93 -2.8001557802781463e-04</internalNodes>
          <leafValues>
            4.2354032397270203e-01 -7.1040725708007812e-01</leafValues></_>
        <_>
          <internalNodes>
            0 -1 34 -6.8013148847967386e-05</internalNodes>
          <leafValues>
            -8.4088516235351562e-01 2.0456172525882721e-01</leafValues></_>
        <_>
          <internalNodes>
            0 -1 4 2.6095550507307053e-02</internalNodes>
          <leafValues>
            -5.0916546583175659e-01 3.5635885596275330e-01</leafValues></_>
        <_>
          <internalNodes>
            0 -1 79 1.4955593505874276e-03</internalNodes>
          <leafValues>
            -3.5008633136749268e-01 4.8509895801544189e-01</leafValues></_>
        <_>
          <internalNodes>
            0 -1 41 9.5709212473593652e-05</internalNodes>
          <leafValues>
            1.5407283604145050e-01 -8.3146685361862183e-01</leafValues></_>
        <_>
          <internalNodes>
            0 -1 45 5.3023252636194229e-02</internalNodes>
          <leafValues>
            -5.2405619621276855e-01 2.7939027547836304e-01</leafValues></_>
        <_>
          <internalNodes>
            0 -1 70 -1.1522699787747115e-04</internalNodes>
          <leafValues>
            -6.6085928678512573e-01 2.4523840844631195e-01</leafValues></_>
        <_>
          <internalNodes>
            0 -1 43 -1.0496343020349741e-04</internalNodes>
          <leafValues>
            -8.5538846254348755e-01 1.4310631155967712e-01</leafValues></_></weakClassifiers></_>
    <!-- stage 14 -->
    <_>
      <maxWeakCount>10</maxWeakCount>
      <stageThreshold>-7.3769158124923706e-01</stageThreshold>
      <weakClassifiers>
        <_>
          <internalNodes>
            0 -1 2 1.6083227470517159e-02</internalNodes>
          <leafValues>
            -6.5573769807815552e-01 4.3560606241226196e-01</leafValues></_>
        <_>
          <internalNodes>
            0 -1 30 -1.3652149587869644e-02</internalNodes>
          <leafValues>
            6.1531394720077515e-01 -2.5025859475135803e-01</leafValues></_>
        <_>
          <internalNodes>
            0 -1 32 5.8303543482907116e-05</internalNodes>
          <leafValues>
            3.3269041776657104e-01 -5.1626235246658325e-01</leafValues></_>
        <_>
          <internalNodes>
            0 -1 29 6.6913838963955641e-04</internalNodes>
          <leafValues>
            -8.5765814781188965e-01 1.7015522718429565e-01</leafValues></_>
        <_>
          <internalNodes>
            0 -1 95 1.9621336832642555e-03</internalNodes>
          <leafValues>
            -4.2888221144676208e-01 3.6418345570564270e-01</leafValues></_>
        <_>
          <internalNodes>
            0 -1 26 1.1793918383773416e-04</internalNodes>
          <leafValues>
            2.0349302887916565e-01 -6.5105801820755005e-01</leafValues></_>
        <_>
          <internalNodes>
            0 -1 53 -5.3660781122744083e-04</internalNodes>
          <leafValues>
            1.7154541611671448e-01 -8.3513087034225464e-01</leafValues></_>
        <_>
          <internalNodes>
            0 -1 86 -2.4204647168517113e-02</internalNodes>
          <leafValues>
            1.7459772527217865e-01 -6.7210680246353149e-01</leafValues></_>
        <_>
          <internalNodes>
            0 -1 42 9.4069517217576504e-05</internalNodes>
          <leafValues>
            1.7209044098854065e-01 -7.7673429250717163e-01</leafValues></_>
        <_>
          <internalNodes>
            0 -1 6 5.4130807984620333e-04</internalNodes>
          <leafValues>
            -4.1377469897270203e-01 3.7652862071990967e-01</leafValues></_></weakClassifiers></_>
    <!-- stage 15 -->
    <_>
      <maxWeakCount>10</maxWeakCount>
      <stageThreshold>-8.0994039773941040e-01</stageThreshold>
      <weakClassifiers>
        <_>
          <internalNodes>
            0 -1 56 -3.4332983195781708e-03</internalNodes>
          <leafValues>
            3.8070175051689148e-01 -8.3749997615814209e-01</leafValues></_>
        <_>
          <internalNodes>
            0 -1 74 -3.1457634177058935e-03</internalNodes>
          <leafValues>
            5.0984895229339600e-01 -3.4890493750572205e-01</leafValues></_>
        <_>
          <internalNodes>
            0 -1 81 -1.0394096170784906e-04</internalNodes>
          <leafValues>
            -9.2584073543548584e-01 2.0410218834877014e-01</leafValues></_>
        <_>
          <internalNodes>
            0 -1 23 3.1170260161161423e-02</internalNodes>
          <leafValues>
            -6.3508355617523193e-01 1.9097641110420227e-01</leafValues></_>
        <_>
          <internalNodes>
            0 -1 63 -8.3541744970716536e-05</internalNodes>
          <leafValues>
            -4.6960827708244324e-01 3.1580868363380432e-01</leafValues></_>
        <_>
          <internalNodes>
            0 -1 64 1.4710452524013817e-04</internalNodes>
          <leafValues>
            1.7542999982833862e-01 -8.3825409412384033e-01</leafValues></_>
        <_>
          <internalNodes>
            0 -1 57 -4.0711052715778351e-03</internalNodes>
          <leafValues>
            1.9630150496959686e-01 -6.8580472469329834e-01</leafValues></_>
        <_>
          <internalNodes>
            0 -1 46 -9.0379547327756882e-03</internalNodes>
          <leafValues>
            7.3376595973968506e-01 -2.1973620355129242e-01</leafValues></_>
        <_>
          <internalNodes>
            0 -1 61 -2.4704313836991787e-03</internalNodes>
          <leafValues>
            7.1269017457962036e-01 -2.6219668984413147e-01</leafValues></_>
        <_>
          <internalNodes>
            0 -1 7 -6.4268633723258972e-03</internalNodes>
          <leafValues>
            3.7929248809814453e-01 -4.2873904109001160e-01</leafValues></_></weakClassifiers></_>
    <!-- stage 16 -->
    <_>
      <maxWeakCount>9</maxWeakCount>
      <stageThreshold>-1.0357464551925659e+00</stageThreshold>
      <weakClassifiers>
        <_>
          <internalNodes>
            0 -1 75 1.6001113690435886e-03</internalNodes>
          <leafValues>
            -2.4237559735774994e-01 6.6617429256439209e-01</leafValues></_>
        <_>
          <internalNodes>
            0 -1 69 -7.1095324528869241e-05</internalNodes>
          <leafValues>
            -7.3216062784194946e-01 2.8904122114181519e-01</leafValues></_>
        <_>
          <internalNodes>
            0 -1 73 -7.1198111400008202e-03</internalNodes>
          <leafValues>
            7.0634675025939941e-01 -2.9906901717185974e-01</leafValues></_>
        <_>
          <internalNodes>
            0 -1 9 -8.2139438018202782e-04</internalNodes>
          <leafValues>
            3.6566928029060364e-01 -4.5602795481681824e-01</leafValues></_>
        <_>
          <internalNodes>
            0 -1 28 -1.3369514606893063e-02</internalNodes>
          <leafValues>
            8.3001959323883057e-01 -2.3316189646720886e-01</leafValues></_>
        <_>
          <internalNodes>
            0 -1 38 -1.1393998283892870e-04</internalNodes>
          <leafValues>
            6.1877018213272095e-01 -3.9459210634231567e-01</leafValues></_>
        <_>
          <internalNodes>
            0 -1 66 5.1796494517475367e-05</internalNodes>
          <leafValues>
            2.7103608846664429e-01 -8.0676001310348511e-01</leafValues></_>
        <_>
          <internalNodes>
            0 -1 82 -4.9241036322200671e-05</internalNodes>
          <leafValues>
            -4.8459118604660034e-01 4.6831136941909790e-01</leafValues></_>
        <_>
          <internalNodes>
            0 -1 18 3.1372194644063711e-04</internalNodes>
          <leafValues>
            -3.8353267312049866e-01 5.1399397850036621e-01</leafValues></_></weakClassifiers></_></stages>
  <features>
    <_>
      <rects>
        <_>
          0 8 10 10 -1.</_>
        <_>
          0 8 5 5 2.</_>
        <_>
          5 13 5 5 2.</_></rects>
      <tilted>0</tilted></_>
    <_>
      <rects>
        <_>
          1 9 8 3 -1.</_>
        <_>
          5 9 4 3 2.</_></rects>
      <tilted>0</tilted></_>
    <_>
      <rects>
        <_>
          2 11 10 3 -1.</_>
        <_>
          7 11 5 3 2.</_></rects>
      <tilted>0</tilted></_>
    <_>
      <rects>
        <_>
          3 2 4 10 -1.</_>
        <_>
          3 2 2 5 2.</_>
        <_>
          5 7 2 5 2.</_></rects>
      <tilted>0</tilted></_>
    <_>
      <rects>
        <_>
          3 8 4 4 -1.</_>
        <_>
          5 8 2 4 2.</_></rects>
      <tilted>0</tilted></_>
    <_>
      <rects>
        <_>
          4 5 10 11 -1.</_>
        <_>
          9 5 5 11 2.</_></rects>
      <tilted>0</tilted></_>
    <_>
      <rects>
        <_>
          4 8 2 2 -1.</_>
        <_>
          4 8 1 1 2.</_>
        <_>
          5 9 1 1 2.</_></rects>
      <tilted>0</tilted></_>
    <_>
      <rects>
        <_>
          4 8 2 10 -1.</_>
        <_>
          4 8 1 5 2.</_>
        <_>
          5 13 1 5 2.</_></rects>
      <tilted>0</tilted></_>
    <_>
      <rects>
        <_>
          4 9 2 1 -1.</_>
        <_>
          5 9 1 1 2.</_></rects>
      <tilted>0</tilted></_>
    <_>
      <rects>
        <_>
          4 9 2 4 -1.</_>
        <_>
          4 9 1 2 2.</_>
        <_>
          5 11 1 2 2.</_></rects>
      <tilted>0</tilted></_>
    <_>
      <rects>
        <_>
          4 10 2 1 -1.</_>
        <_>
          5 10 1 1 2.</_></rects>
      <tilted>0</tilted></_>
    <_>
      <rects>
        <_>
          4 10 10 1 -1.</_>
        <_>
          9 10 5 1 2.</_></rects>
      <tilted>0</tilted></_>
    <_>
      <rects>
        <_>
          5 4 11 6 -1.</_>
        <_>
          5 7 11 3 2.</_></rects>
      <tilted>0</tilted></_>
    <_>
      <rects>
        <_>
          5 5 2 6 -1.</_>
        <_>
          5 8 2 3 2.</_></rects>
      <tilted>0</tilted></_>
    <_>
      <rects>
        <_>
          5 5 10 4 -1.</_>
        <_>
          5 7 10 2 2.</_></rects>
      <tilted>0</tilted></_>
    <_>
      <rects>
        <_>
          5 8 10 12 -1.</_>
        <_>
          5 14 10 6 2.</_></rects>
      <tilted>0</tilted></_>
    <_>
      <rects>
        <_>
          5 9 6 8 -1.</_>
        <_>
          5 13 6 4 2.</_></rects>
      <tilted>0</tilted></_>
    <_>
      <rects>
        <_>
          5 10 5 6 -1.</_>
        <_>
          5 13 5 3 2.</_></rects>
      <tilted>0</tilted></_>
    <_>
      <rects>
        <_>
          5 11 4 2 -1.</_>
        <_>
          5 11 2 1 2.</_>
        <_>
          7 12 2 1 2.</_></rects>
      <tilted>0</tilted></_>
    <_>
      <rects>
        <_>
          5 11 10 6 -1.</_>
        <_>
          5 14 10 3 2.</_></rects>
      <tilted>0</tilted></_>
    <_>
      <rects>
        <_>
          6 0 10 12 -1.</_>
        <_>
          6 6 10 6 2.</_></rects>
      <tilted>0</tilted></_>
    <_>
      <rects>
        <_>
          6 3 9 8 -1.</_>
        <_>
          6 7 9 4 2.</_></rects>
      <tilted>0</tilted></_>
    <_>
      <rects>
        <_>
          6 4 9 6 -1.</_>
        <_>
          6 7 9 3 2.</_></rects>
      <tilted>0</tilted></_>
    <_>
      <rects>
        <_>
          6 5 9 4 -1.</_>
        <_>
          6 7 9 2 2.</_></rects>
      <tilted>0</tilted></_>
    <_>
      <rects>
        <_>
          6 9 8 10 -1.</_>
        <_>
          6 14 8 5 2.</_></rects>
      <tilted>0</tilted></_>
    <_>
      <rects>
        <_>
          6 10 2 1 -1.</_>
        <_>
          7 10 1 1 2.</_></rects>
      <tilted>0</tilted></_>
    <_>
      <rects>
        <_>
          6 10 6 1 -1.</_>
        <_>
          9 10 3 1 2.</_></rects>
      <tilted>0</tilted></_>
    <_>
      <rects>
        <_>
          6 11 10 4 -1.</_>
        <_>
          6 13 10 2 2.</_></rects>
      <tilted>0</tilted></_>
    <_>
      <rects>
        <_>
          7 1 4 14 -1.</_>
        <_>
          7 1 2 7 2.</_>
        <_>
          9 8 2 7 2.</_></rects>
      <tilted>0</tilted></_>
    <_>
      <rects>
        <_>
          7 5 1 6 -1.</_>
        <_>
          7 8 1 3 2.</_></rects>
      <tilted>0</tilted></_>
    <_>
      <rects>
        <_>
          7 5 6 8 -1.</_>
        <_>
          7 5 3 4 2.</_>
        <_>
          10 9 3 4 2.</_></rects>
      <tilted>0</tilted></_>
    <_>
      <rects>
        <_>
          7 6 6 2 -1.</_>
        <_>
          7 7 6 1 2.</_></rects>
      <tilted>0</tilted></_>
    <_>
      <rects>
        <_>
          7 8 2 2 -1.</_>
        <_>
          7 9 2 1 2.</_></rects>
      <tilted>0</tilted></_>
    <_>
      <rects>
        <_>
          7 9 4 1 -1.</_>
        <_>
          9 9 2 1 2.</_></rects>
      <tilted>0</tilted></_>
    <_>
      <rects>
        <_>
          7 9 2 2 -1.</_>
        <_>
          7 10 2 1 2.</_></rects>
      <tilted>0</tilted></_>
    <_>
      <rects>
        <_>
          7 10 2 1 -1.</_>
        <_>
          8 10 1 1 2.</_></rects>
      <tilted>0</tilted></_>
    <_>
      <rects>
        <_>
          7 10 6 1 -1.</_>
        <_>
          10 10 3 1 2.</_></rects>
      <tilted>0</tilted></_>
    <_>
      <rects>
        <_>
          8 4 3 6 -1.</_>
        <_>
          8 7 3 3 2.</_></rects>
      <tilted>0</tilted></_>
    <_>
      <rects>
        <_>
          8 6 2 3 -1.</_>
        <_>
          9 6 1 3 2.</_></rects>
      <tilted>0</tilted></_>
    <_>
      <rects>
        <_>
          8 6 4 4 -1.</_>
        <_>
          8 8 4 2 2.</_></rects>
      <tilted>0</tilted></_>
    <_>
      <rects>
        <_>
          8 8 6 5 -1.</_>
        <_>
          10 8 2 5 2.</_></rects>
      <tilted>0</tilted></_>
    <_>
      <rects>
        <_>
          8 9 3 2 -1.</_>
        <_>
          8 10 3 1 2.</_></rects>
      <tilted>0</tilted></_>
    <_>
      <rects>
        <_>
          8 9 4 2 -1.</_>
        <_>
          8 10 4 1 2.</_></rects>
      <tilted>0</tilted></_>
    <_>
      <rects>
        <_>
          8 9 5 2 -1.</_>
        <_>
          8 10 5 1 2.</_></rects>
      <tilted>0</tilted></_>
    <_>
      <rects>
        <_>
          8 10 6 1 -1.</_>
        <_>
          11 10 3 1 2.</_></rects>
      <tilted>0</tilted></_>
    <_>
      <rects>
        <_>
          8 11 12 8 -1.</_>
        <_>
          8 11 6 4 2.</_>
        <_>
          14 15 6 4 2.</_></rects>
      <tilted>0</tilted></_>
    <_>
      <rects>
        <_>
          9 3 4 10 -1.</_>
        <_>
          9 3 2 5 2.</_>
        <_>
          11 8 2 5 2.</_></rects>
      <tilted>0</tilted></_>
    <_>
      <rects>
        <_>
          9 3 4 6 -1.</_>
        <_>
          9 6 4 3 2.</_></rects>
      <tilted>0</tilted></_>
    <_>
      <rects>
        <_>
          9 6 3 6 -1.</_>
        <_>
          9 9 3 3 2.</_></rects>
      <tilted>0</tilted></_>
    <_>
      <rects>
        <_>
          9 9 4 1 -1.</_>
        <_>
          11 9 2 1 2.</_></rects>
      <tilted>0</tilted></_>
    <_>
      <rects>
        <_>
          9 9 4 2 -1.</_>
        <_>
          11 9 2 2 2.</_></rects>
      <tilted>0</tilted></_>
    <_>
      <rects>
        <_>
          9 9 2 4 -1.</_>
        <_>
          9 11 2 2 2.</_></rects>
      <tilted>0</tilted></_>
    <_>
      <rects>
        <_>
          9 9 4 3 -1.</_>
        <_>
          11 9 2 3 2.</_></rects>
      <tilted>0</tilted></_>
    <_>
      <rects>
        <_>
          9 9 2 6 -1.</_>
        <_>
          9 12 2 3 2.</_></rects>
      <tilted>0</tilted></_>
    <_>
      <rects>
        <_>
          9 9 3 2 -1.</_>
        <_>
          9 10 3 1 2.</_></rects>
      <tilted>0</tilted></_>
    <_>
      <rects>
        <_>
          9 10 2 2 -1.</_>
        <_>
          9 11 2 1 2.</_></rects>
      <tilted>0</tilted></_>
    <_>
      <rects>
        <_>
          9 11 8 2 -1.</_>
        <_>
          13 11 4 2 2.</_></rects>
      <tilted>0</tilted></_>
    <_>
      <rects>
        <_>
          9 13 5 2 -1.</_>
        <_>
          9 14 5 1 2.</_></rects>
      <tilted>0</tilted></_>
    <_>
      <rects>
        <_>
          9 13 6 2 -1.</_>
        <_>
          9 14 6 1 2.</_></rects>
      <tilted>0</tilted></_>
    <_>
      <rects>
        <_>
          9 14 5 2 -1.</_>
        <_>
          9 15 5 1 2.</_></rects>
      <tilted>0</tilted></_>
    <_>
      <rects>
        <_>
          10 2 10 8 -1.</_>
        <_>
          10 2 5 4 2.</_>
        <_>
          15 6 5 4 2.</_></rects>
      <tilted>0</tilted></_>
    <_>
      <rects>
        <_>
          10 4 2 4 -1.</_>
        <_>
          11 4 1 4 2.</_></rects>
      <tilted>0</tilted></_>
    <_>
      <rects>
        <_>
          10 6 8 8 -1.</_>
        <_>
          14 6 4 8 2.</_></rects>
      <tilted>0</tilted></_>
    <_>
      <rects>
        <_>
          10 8 4 2 -1.</_>
        <_>
          12 8 2 2 2.</_></rects>
      <tilted>0</tilted></_>
    <_>
      <rects>
        <_>
          10 8 4 3 -1.</_>
        <_>
          12 8 2 3 2.</_></rects>
      <tilted>0</tilted></_>
    <_>
      <rects>
        <_>
          10 9 2 3 -1.</_>
        <_>
          11 9 1 3 2.</_></rects>
      <tilted>0</tilted></_>
    <_>
      <rects>
        <_>
          10 10 4 1 -1.</_>
        <_>
          12 10 2 1 2.</_></rects>
      <tilted>0</tilted></_>
    <_>
      <rects>
        <_>
          10 10 6 4 -1.</_>
        <_>
          10 10 3 2 2.</_>
        <_>
          13 12 3 2 2.</_></rects>
      <tilted>0</tilted></_>
    <_>
      <rects>
        <_>
          11 5 3 2 -1.</_>
        <_>
          11 6 3 1 2.</_></rects>
      <tilted>0</tilted></_>
    <_>
      <rects>
        <_>
          11 8 2 2 -1.</_>
        <_>
          12 8 1 2 2.</_></rects>
      <tilted>0</tilted></_>
    <_>
      <rects>
        <_>
          11 8 2 5 -1.</_>
        <_>
          12 8 1 5 2.</_></rects>
      <tilted>0</tilted></_>
    <_>
      <rects>
        <_>
          11 8 2 4 -1.</_>
        <_>
          11 10 2 2 2.</_></rects>
      <tilted>0</tilted></_>
    <_>
      <rects>
        <_>
          11 12 5 2 -1.</_>
        <_>
          11 13 5 1 2.</_></rects>
      <tilted>0</tilted></_>
    <_>
      <rects>
        <_>
          11 14 2 4 -1.</_>
        <_>
          11 16 2 2 2.</_></rects>
      <tilted>0</tilted></_>
    <_>
      <rects>
        <_>
          12 4 2 3 -1.</_>
        <_>
          13 4 1 3 2.</_></rects>
      <tilted>0</tilted></_>
    <_>
      <rects>
        <_>
          12 4 2 8 -1.</_>
        <_>
          12 4 1 4 2.</_>
        <_>
          13 8 1 4 2.</_></rects>
      <tilted>0</tilted></_>
    <_>
      <rects>
        <_>
          12 5 2 6 -1.</_>
        <_>
          12 5 1 3 2.</_>
        <_>
          13 8 1 3 2.</_></rects>
      <tilted>0</tilted></_>
    <_>
      <rects>
        <_>
          12 6 4 2 -1.</_>
        <_>
          14 6 2 2 2.</_></rects>
      <tilted>0</tilted></_>
    <_>
      <rects>
        <_>
          12 7 4 1 -1.</_>
        <_>
          14 7 2 1 2.</_></rects>
      <tilted>0</tilted></_>
    <_>
      <rects>
        <_>
          12 7 4 2 -1.</_>
        <_>
          12 7 2 1 2.</_>
        <_>
          14 8 2 1 2.</_></rects>
      <tilted>0</tilted></_>
    <_>
      <rects>
        <_>
          12 7 6 6 -1.</_>
        <_>
          15 7 3 6 2.</_></rects>
      <tilted>0</tilted></_>
    <_>
      <rects>
        <_>
          12 8 1 4 -1.</_>
        <_>
          12 10 1 2 2.</_></rects>
      <tilted>0</tilted></_>
    <_>
      <rects>
        <_>
          12 8 2 3 -1.</_>
        <_>
          13 8 1 3 2.</_></rects>
      <tilted>0</tilted></_>
    <_>
      <rects>
        <_>
          12 10 1 2 -1.</_>
        <_>
          12 11 1 1 2.</_></rects>
      <tilted>0</tilted></_>
    <_>
      <rects>
        <_>
          12 10 8 8 -1.</_>
        <_>
          12 10 4 4 2.</_>
        <_>
          16 14 4 4 2.</_></rects>
      <tilted>0</tilted></_>
    <_>
      <rects>
        <_>
          12 11 1 2 -1.</_>
        <_>
          12 12 1 1 2.</_></rects>
      <tilted>0</tilted></_>
    <_>
      <rects>
        <_>
          13 1 6 12 -1.</_>
        <_>
          13 1 3 6 2.</_>
        <_>
          16 7 3 6 2.</_></rects>
      <tilted>0</tilted></_>
    <_>
      <rects>
        <_>
          13 5 2 6 -1.</_>
        <_>
          13 5 1 3 2.</_>
        <_>
          14 8 1 3 2.</_></rects>
      <tilted>0</tilted></_>
    <_>
      <rects>
        <_>
          13 6 2 9 -1.</_>
        <_>
          14 6 1 9 2.</_></rects>
      <tilted>0</tilted></_>
    <_>
      <rects>
        <_>
          13 6 2 4 -1.</_>
        <_>
          13 8 2 2 2.</_></rects>
      <tilted>0</tilted></_>
    <_>
      <rects>
        <_>
          13 6 4 8 -1.</_>
        <_>
          15 6 2 8 2.</_></rects>
      <tilted>0</tilted></_>
    <_>
      <rects>
        <_>
          13 9 2 6 -1.</_>
        <_>
          13 9 1 3 2.</_>
        <_>
          14 12 1 3 2.</_></rects>
      <tilted>0</tilted></_>
    <_>
      <rects>
        <_>
          13 10 2 4 -1.</_>
        <_>
          13 10 1 2 2.</_>
        <_>
          14 12 1 2 2.</_></rects>
      <tilted>0</tilted></_>
    <_>
      <rects>
        <_>
          13 12 2 2 -1.</_>
        <_>
          14 12 1 2 2.</_></rects>
      <tilted>0</tilted></_>
    <_>
      <rects>
        <_>
          13 12 4 4 -1.</_>
        <_>
          13 12 2 2 2.</_>
        <_>
          15 14 2 2 2.</_></rects>
      <tilted>0</tilted></_>
    <_>
      <rects>
        <_>
          13 13 2 4 -1.</_>
        <_>
          13 13 1 2 2.</_>
        <_>
          14 15 1 2 2.</_></rects>
      <tilted>0</tilted></_></features></cascade>
</opencv_storage>
